digraph Tree {
node [shape=box] ;
0 [label="X[5] <= -0.1231\nmse = 0.6142\nsamples = 219\nvalue = -0.0201"] ;
1 [label="X[13] <= 3.4762\nmse = 0.0157\nsamples = 171\nvalue = -0.3893"] ;
0 -> 1 [labeldistance=2.5, labelangle=45, headlabel="True"] ;
2 [label="X[16] <= -0.2774\nmse = 0.0033\nsamples = 165\nvalue = -0.4101"] ;
1 -> 2 ;
3 [label="X[16] <= -0.3232\nmse = 0.0009\nsamples = 140\nvalue = -0.4276"] ;
2 -> 3 ;
4 [label="X[12] <= -0.1656\nmse = 0.0005\nsamples = 104\nvalue = -0.439"] ;
3 -> 4 ;
5 [label="X[24] <= -0.3513\nmse = 0.0004\nsamples = 70\nvalue = -0.4306"] ;
4 -> 5 ;
6 [label="X[37] <= -0.6163\nmse = 0.0012\nsamples = 4\nvalue = -0.3992"] ;
5 -> 6 ;
7 [label="mse = 0.0\nsamples = 1\nvalue = -0.4421"] ;
6 -> 7 ;
8 [label="X[38] <= 0.0596\nmse = 0.0007\nsamples = 3\nvalue = -0.3849"] ;
6 -> 8 ;
9 [label="X[36] <= -0.7109\nmse = 0.0001\nsamples = 2\nvalue = -0.3662"] ;
8 -> 9 ;
10 [label="mse = 0.0\nsamples = 1\nvalue = -0.3583"] ;
9 -> 10 ;
11 [label="mse = 0.0\nsamples = 1\nvalue = -0.3741"] ;
9 -> 11 ;
12 [label="mse = 0.0\nsamples = 1\nvalue = -0.4223"] ;
8 -> 12 ;
13 [label="X[28] <= -0.4914\nmse = 0.0003\nsamples = 66\nvalue = -0.4325"] ;
5 -> 13 ;
14 [label="X[3] <= -0.3997\nmse = 0.0\nsamples = 17\nvalue = -0.4453"] ;
13 -> 14 ;
15 [label="X[36] <= 0.6761\nmse = 0.0\nsamples = 13\nvalue = -0.4466"] ;
14 -> 15 ;
16 [label="X[19] <= 1.3837\nmse = 0.0\nsamples = 10\nvalue = -0.4464"] ;
15 -> 16 ;
17 [label="X[36] <= 0.0596\nmse = 0.0\nsamples = 6\nvalue = -0.4461"] ;
16 -> 17 ;
18 [label="X[25] <= -0.2835\nmse = 0.0\nsamples = 4\nvalue = -0.4458"] ;
17 -> 18 ;
19 [label="X[37] <= -0.6163\nmse = 0.0\nsamples = 3\nvalue = -0.4462"] ;
18 -> 19 ;
20 [label="mse = 0.0\nsamples = 1\nvalue = -0.4472"] ;
19 -> 20 ;
21 [label="mse = 0.0\nsamples = 2\nvalue = -0.4457"] ;
19 -> 21 ;
22 [label="mse = 0.0\nsamples = 1\nvalue = -0.4447"] ;
18 -> 22 ;
23 [label="X[16] <= -0.3416\nmse = 0.0\nsamples = 2\nvalue = -0.4466"] ;
17 -> 23 ;
24 [label="mse = 0.0\nsamples = 1\nvalue = -0.4458"] ;
23 -> 24 ;
25 [label="mse = 0.0\nsamples = 1\nvalue = -0.4473"] ;
23 -> 25 ;
26 [label="X[34] <= 1.1028\nmse = 0.0\nsamples = 4\nvalue = -0.447"] ;
16 -> 26 ;
27 [label="X[35] <= -0.6074\nmse = 0.0\nsamples = 3\nvalue = -0.4467"] ;
26 -> 27 ;
28 [label="mse = 0.0\nsamples = 2\nvalue = -0.447"] ;
27 -> 28 ;
29 [label="mse = 0.0\nsamples = 1\nvalue = -0.4461"] ;
27 -> 29 ;
30 [label="mse = -0.0\nsamples = 1\nvalue = -0.4478"] ;
26 -> 30 ;
31 [label="mse = 0.0\nsamples = 3\nvalue = -0.4472"] ;
15 -> 31 ;
32 [label="X[34] <= -0.1227\nmse = 0.0\nsamples = 4\nvalue = -0.4411"] ;
14 -> 32 ;
33 [label="mse = 0.0\nsamples = 1\nvalue = -0.4314"] ;
32 -> 33 ;
34 [label="X[37] <= 0.6074\nmse = 0.0\nsamples = 3\nvalue = -0.4443"] ;
32 -> 34 ;
35 [label="X[34] <= 1.1028\nmse = 0.0\nsamples = 2\nvalue = -0.4436"] ;
34 -> 35 ;
36 [label="mse = 0.0\nsamples = 1\nvalue = -0.4443"] ;
35 -> 36 ;
37 [label="mse = -0.0\nsamples = 1\nvalue = -0.4429"] ;
35 -> 37 ;
38 [label="mse = -0.0\nsamples = 1\nvalue = -0.4458"] ;
34 -> 38 ;
39 [label="X[22] <= -0.3012\nmse = 0.0003\nsamples = 49\nvalue = -0.4281"] ;
13 -> 39 ;
40 [label="X[38] <= 0.6761\nmse = 0.0003\nsamples = 40\nvalue = -0.4306"] ;
39 -> 40 ;
41 [label="X[16] <= -0.3414\nmse = 0.0003\nsamples = 26\nvalue = -0.4271"] ;
40 -> 41 ;
42 [label="X[34] <= 0.4025\nmse = 0.0022\nsamples = 2\nvalue = -0.411"] ;
41 -> 42 ;
43 [label="mse = 0.0\nsamples = 1\nvalue = -0.4582"] ;
42 -> 43 ;
44 [label="mse = 0.0\nsamples = 1\nvalue = -0.3639"] ;
42 -> 44 ;
45 [label="X[34] <= -0.2978\nmse = 0.0001\nsamples = 24\nvalue = -0.4285"] ;
41 -> 45 ;
46 [label="X[0] <= -0.0641\nmse = 0.0002\nsamples = 7\nvalue = -0.422"] ;
45 -> 46 ;
47 [label="X[23] <= 1.7672\nmse = 0.0001\nsamples = 2\nvalue = -0.4024"] ;
46 -> 47 ;
48 [label="mse = 0.0\nsamples = 1\nvalue = -0.3944"] ;
47 -> 48 ;
49 [label="mse = -0.0\nsamples = 1\nvalue = -0.4104"] ;
47 -> 49 ;
50 [label="X[28] <= -0.2822\nmse = 0.0\nsamples = 5\nvalue = -0.4298"] ;
46 -> 50 ;
51 [label="X[25] <= -0.2663\nmse = 0.0\nsamples = 3\nvalue = -0.4327"] ;
50 -> 51 ;
52 [label="mse = 0.0\nsamples = 1\nvalue = -0.4338"] ;
51 -> 52 ;
53 [label="X[9] <= -0.1266\nmse = 0.0\nsamples = 2\nvalue = -0.4322"] ;
51 -> 53 ;
54 [label="mse = 0.0\nsamples = 1\nvalue = -0.4316"] ;
53 -> 54 ;
55 [label="mse = 0.0\nsamples = 1\nvalue = -0.4327"] ;
53 -> 55 ;
56 [label="X[8] <= -0.0762\nmse = 0.0\nsamples = 2\nvalue = -0.4256"] ;
50 -> 56 ;
57 [label="mse = 0.0\nsamples = 1\nvalue = -0.4234"] ;
56 -> 57 ;
58 [label="mse = -0.0\nsamples = 1\nvalue = -0.4277"] ;
56 -> 58 ;
59 [label="X[0] <= -0.0641\nmse = 0.0001\nsamples = 17\nvalue = -0.4311"] ;
45 -> 59 ;
60 [label="X[36] <= -0.7109\nmse = 0.0\nsamples = 5\nvalue = -0.4438"] ;
59 -> 60 ;
61 [label="X[37] <= -0.0045\nmse = 0.0\nsamples = 4\nvalue = -0.4464"] ;
60 -> 61 ;
62 [label="X[28] <= -0.3718\nmse = 0.0\nsamples = 2\nvalue = -0.4494"] ;
61 -> 62 ;
63 [label="mse = 0.0\nsamples = 1\nvalue = -0.4509"] ;
62 -> 63 ;
64 [label="mse = -0.0\nsamples = 1\nvalue = -0.448"] ;
62 -> 64 ;
65 [label="X[9] <= -0.1223\nmse = 0.0\nsamples = 2\nvalue = -0.4434"] ;
61 -> 65 ;
66 [label="mse = 0.0\nsamples = 1\nvalue = -0.4392"] ;
65 -> 66 ;
67 [label="mse = 0.0\nsamples = 1\nvalue = -0.4476"] ;
65 -> 67 ;
68 [label="mse = 0.0\nsamples = 1\nvalue = -0.4332"] ;
60 -> 68 ;
69 [label="X[23] <= -0.9599\nmse = 0.0\nsamples = 12\nvalue = -0.4258"] ;
59 -> 69 ;
70 [label="X[17] <= -0.8374\nmse = 0.0\nsamples = 5\nvalue = -0.4238"] ;
69 -> 70 ;
71 [label="X[36] <= -0.7109\nmse = 0.0\nsamples = 3\nvalue = -0.4233"] ;
70 -> 71 ;
72 [label="mse = 0.0\nsamples = 2\nvalue = -0.424"] ;
71 -> 72 ;
73 [label="mse = -0.0\nsamples = 1\nvalue = -0.4221"] ;
71 -> 73 ;
74 [label="X[36] <= -0.7109\nmse = 0.0\nsamples = 2\nvalue = -0.4244"] ;
70 -> 74 ;
75 [label="mse = 0.0\nsamples = 1\nvalue = -0.4237"] ;
74 -> 75 ;
76 [label="mse = 0.0\nsamples = 1\nvalue = -0.4252"] ;
74 -> 76 ;
77 [label="X[37] <= 0.6074\nmse = 0.0\nsamples = 7\nvalue = -0.4273"] ;
69 -> 77 ;
78 [label="X[23] <= 0.5049\nmse = 0.0\nsamples = 5\nvalue = -0.4288"] ;
77 -> 78 ;
79 [label="X[18] <= 0.8721\nmse = 0.0\nsamples = 4\nvalue = -0.4277"] ;
78 -> 79 ;
80 [label="mse = 0.0\nsamples = 2\nvalue = -0.4267"] ;
79 -> 80 ;
81 [label="X[34] <= 1.1028\nmse = 0.0\nsamples = 2\nvalue = -0.4286"] ;
79 -> 81 ;
82 [label="mse = 0.0\nsamples = 1\nvalue = -0.427"] ;
81 -> 82 ;
83 [label="mse = 0.0\nsamples = 1\nvalue = -0.4302"] ;
81 -> 83 ;
84 [label="mse = -0.0\nsamples = 1\nvalue = -0.4335"] ;
78 -> 84 ;
85 [label="X[24] <= -0.1971\nmse = 0.0\nsamples = 2\nvalue = -0.4234"] ;
77 -> 85 ;
86 [label="mse = 0.0\nsamples = 1\nvalue = -0.4271"] ;
85 -> 86 ;
87 [label="mse = -0.0\nsamples = 1\nvalue = -0.4198"] ;
85 -> 87 ;
88 [label="X[9] <= -0.1254\nmse = 0.0002\nsamples = 14\nvalue = -0.437"] ;
40 -> 88 ;
89 [label="X[35] <= 0.6163\nmse = 0.0\nsamples = 8\nvalue = -0.4269"] ;
88 -> 89 ;
90 [label="X[17] <= -0.8586\nmse = 0.0\nsamples = 4\nvalue = -0.4244"] ;
89 -> 90 ;
91 [label="mse = 0.0\nsamples = 1\nvalue = -0.4207"] ;
90 -> 91 ;
92 [label="X[24] <= -0.3305\nmse = 0.0\nsamples = 3\nvalue = -0.4256"] ;
90 -> 92 ;
93 [label="mse = 0.0\nsamples = 1\nvalue = -0.4248"] ;
92 -> 93 ;
94 [label="mse = 0.0\nsamples = 2\nvalue = -0.426"] ;
92 -> 94 ;
95 [label="X[19] <= 1.2997\nmse = 0.0\nsamples = 4\nvalue = -0.4295"] ;
89 -> 95 ;
96 [label="X[3] <= -0.4154\nmse = 0.0\nsamples = 3\nvalue = -0.428"] ;
95 -> 96 ;
97 [label="mse = 0.0\nsamples = 1\nvalue = -0.4298"] ;
96 -> 97 ;
98 [label="X[7] <= -0.6491\nmse = 0.0\nsamples = 2\nvalue = -0.427"] ;
96 -> 98 ;
99 [label="mse = 0.0\nsamples = 1\nvalue = -0.4261"] ;
98 -> 99 ;
100 [label="mse = 0.0\nsamples = 1\nvalue = -0.428"] ;
98 -> 100 ;
101 [label="mse = -0.0\nsamples = 1\nvalue = -0.4342"] ;
95 -> 101 ;
102 [label="X[32] <= -0.0004\nmse = 0.0\nsamples = 6\nvalue = -0.4504"] ;
88 -> 102 ;
103 [label="X[37] <= -0.6163\nmse = 0.0\nsamples = 2\nvalue = -0.458"] ;
102 -> 103 ;
104 [label="mse = 0.0\nsamples = 1\nvalue = -0.4575"] ;
103 -> 104 ;
105 [label="mse = -0.0\nsamples = 1\nvalue = -0.4584"] ;
103 -> 105 ;
106 [label="X[34] <= -0.823\nmse = 0.0\nsamples = 4\nvalue = -0.4466"] ;
102 -> 106 ;
107 [label="X[17] <= 0.81\nmse = 0.0\nsamples = 2\nvalue = -0.4454"] ;
106 -> 107 ;
108 [label="mse = 0.0\nsamples = 1\nvalue = -0.446"] ;
107 -> 108 ;
109 [label="mse = 0.0\nsamples = 1\nvalue = -0.4448"] ;
107 -> 109 ;
110 [label="X[16] <= -0.3345\nmse = 0.0\nsamples = 2\nvalue = -0.4479"] ;
106 -> 110 ;
111 [label="mse = 0.0\nsamples = 1\nvalue = -0.4485"] ;
110 -> 111 ;
112 [label="mse = 0.0\nsamples = 1\nvalue = -0.4473"] ;
110 -> 112 ;
113 [label="X[38] <= -0.2486\nmse = 0.0004\nsamples = 9\nvalue = -0.4172"] ;
39 -> 113 ;
114 [label="X[5] <= -0.132\nmse = 0.0001\nsamples = 4\nvalue = -0.4303"] ;
113 -> 114 ;
115 [label="X[35] <= 0.0045\nmse = 0.0\nsamples = 2\nvalue = -0.4341"] ;
114 -> 115 ;
116 [label="mse = 0.0\nsamples = 1\nvalue = -0.4315"] ;
115 -> 116 ;
117 [label="mse = -0.0\nsamples = 1\nvalue = -0.4367"] ;
115 -> 117 ;
118 [label="X[38] <= -1.1733\nmse = 0.0001\nsamples = 2\nvalue = -0.4265"] ;
114 -> 118 ;
119 [label="mse = 0.0\nsamples = 1\nvalue = -0.4174"] ;
118 -> 119 ;
120 [label="mse = -0.0\nsamples = 1\nvalue = -0.4357"] ;
118 -> 120 ;
121 [label="X[37] <= -0.6163\nmse = 0.0004\nsamples = 5\nvalue = -0.4066"] ;
113 -> 121 ;
122 [label="mse = 0.0\nsamples = 1\nvalue = -0.3894"] ;
121 -> 122 ;
123 [label="X[7] <= 1.2759\nmse = 0.0004\nsamples = 4\nvalue = -0.411"] ;
121 -> 123 ;
124 [label="X[34] <= -0.823\nmse = 0.0005\nsamples = 2\nvalue = -0.4072"] ;
123 -> 124 ;
125 [label="mse = 0.0\nsamples = 1\nvalue = -0.4286"] ;
124 -> 125 ;
126 [label="mse = 0.0\nsamples = 1\nvalue = -0.3858"] ;
124 -> 126 ;
127 [label="X[38] <= 0.6761\nmse = 0.0003\nsamples = 2\nvalue = -0.4147"] ;
123 -> 127 ;
128 [label="mse = 0.0\nsamples = 1\nvalue = -0.3975"] ;
127 -> 128 ;
129 [label="mse = 0.0\nsamples = 1\nvalue = -0.4319"] ;
127 -> 129 ;
130 [label="X[19] <= 1.2951\nmse = 0.0001\nsamples = 34\nvalue = -0.4563"] ;
4 -> 130 ;
131 [label="X[37] <= 0.6074\nmse = 0.0\nsamples = 24\nvalue = -0.46"] ;
130 -> 131 ;
132 [label="X[22] <= -0.3019\nmse = 0.0\nsamples = 17\nvalue = -0.4602"] ;
131 -> 132 ;
133 [label="X[25] <= -0.2658\nmse = 0.0\nsamples = 9\nvalue = -0.4605"] ;
132 -> 133 ;
134 [label="mse = 0.0\nsamples = 3\nvalue = -0.4603"] ;
133 -> 134 ;
135 [label="mse = 0.0\nsamples = 6\nvalue = -0.4606"] ;
133 -> 135 ;
136 [label="X[34] <= -0.823\nmse = 0.0\nsamples = 8\nvalue = -0.4599"] ;
132 -> 136 ;
137 [label="mse = 0.0\nsamples = 2\nvalue = -0.4595"] ;
136 -> 137 ;
138 [label="X[34] <= -0.1227\nmse = 0.0\nsamples = 6\nvalue = -0.46"] ;
136 -> 138 ;
139 [label="X[25] <= -0.2722\nmse = 0.0\nsamples = 2\nvalue = -0.4607"] ;
138 -> 139 ;
140 [label="mse = 0.0\nsamples = 1\nvalue = -0.4613"] ;
139 -> 140 ;
141 [label="mse = -0.0\nsamples = 1\nvalue = -0.4601"] ;
139 -> 141 ;
142 [label="mse = 0.0\nsamples = 4\nvalue = -0.4597"] ;
138 -> 142 ;
143 [label="mse = 0.0\nsamples = 7\nvalue = -0.4595"] ;
131 -> 143 ;
144 [label="X[38] <= 0.0596\nmse = 0.0002\nsamples = 10\nvalue = -0.4475"] ;
130 -> 144 ;
145 [label="X[35] <= -0.6074\nmse = 0.0003\nsamples = 5\nvalue = -0.4405"] ;
144 -> 145 ;
146 [label="X[16] <= -0.3456\nmse = 0.0\nsamples = 2\nvalue = -0.4559"] ;
145 -> 146 ;
147 [label="mse = 0.0\nsamples = 1\nvalue = -0.4594"] ;
146 -> 147 ;
148 [label="mse = -0.0\nsamples = 1\nvalue = -0.4524"] ;
146 -> 148 ;
149 [label="X[23] <= 0.3991\nmse = 0.0003\nsamples = 3\nvalue = -0.4303"] ;
145 -> 149 ;
150 [label="mse = 0.0\nsamples = 1\nvalue = -0.4541"] ;
149 -> 150 ;
151 [label="X[35] <= 0.6163\nmse = 0.0\nsamples = 2\nvalue = -0.4184"] ;
149 -> 151 ;
152 [label="mse = 0.0\nsamples = 1\nvalue = -0.4204"] ;
151 -> 152 ;
153 [label="mse = 0.0\nsamples = 1\nvalue = -0.4164"] ;
151 -> 153 ;
154 [label="X[34] <= -0.823\nmse = 0.0\nsamples = 5\nvalue = -0.4545"] ;
144 -> 154 ;
155 [label="X[23] <= 0.3991\nmse = 0.0\nsamples = 4\nvalue = -0.4534"] ;
154 -> 155 ;
156 [label="X[36] <= 0.9843\nmse = 0.0\nsamples = 2\nvalue = -0.452"] ;
155 -> 156 ;
157 [label="mse = 0.0\nsamples = 1\nvalue = -0.4495"] ;
156 -> 157 ;
158 [label="mse = 0.0\nsamples = 1\nvalue = -0.4545"] ;
156 -> 158 ;
159 [label="X[37] <= -0.0045\nmse = 0.0\nsamples = 2\nvalue = -0.4549"] ;
155 -> 159 ;
160 [label="mse = 0.0\nsamples = 1\nvalue = -0.4537"] ;
159 -> 160 ;
161 [label="mse = 0.0\nsamples = 1\nvalue = -0.4561"] ;
159 -> 161 ;
162 [label="mse = 0.0\nsamples = 1\nvalue = -0.4589"] ;
154 -> 162 ;
163 [label="X[28] <= -0.2347\nmse = 0.0007\nsamples = 36\nvalue = -0.3947"] ;
3 -> 163 ;
164 [label="X[16] <= -0.3001\nmse = 0.0004\nsamples = 27\nvalue = -0.4007"] ;
163 -> 164 ;
165 [label="X[35] <= 0.6163\nmse = 0.0002\nsamples = 15\nvalue = -0.4053"] ;
164 -> 165 ;
166 [label="X[34] <= -0.823\nmse = 0.0002\nsamples = 10\nvalue = -0.3995"] ;
165 -> 166 ;
167 [label="X[19] <= -0.2467\nmse = 0.0\nsamples = 2\nvalue = -0.4161"] ;
166 -> 167 ;
168 [label="mse = 0.0\nsamples = 1\nvalue = -0.4186"] ;
167 -> 168 ;
169 [label="mse = 0.0\nsamples = 1\nvalue = -0.4136"] ;
167 -> 169 ;
170 [label="X[28] <= -0.3829\nmse = 0.0002\nsamples = 8\nvalue = -0.3953"] ;
166 -> 170 ;
171 [label="X[35] <= -0.6074\nmse = 0.0002\nsamples = 2\nvalue = -0.3802"] ;
170 -> 171 ;
172 [label="mse = 0.0\nsamples = 1\nvalue = -0.3668"] ;
171 -> 172 ;
173 [label="mse = -0.0\nsamples = 1\nvalue = -0.3936"] ;
171 -> 173 ;
174 [label="X[34] <= -0.1227\nmse = 0.0\nsamples = 6\nvalue = -0.4004"] ;
170 -> 174 ;
175 [label="X[13] <= -0.1727\nmse = 0.0\nsamples = 2\nvalue = -0.394"] ;
174 -> 175 ;
176 [label="mse = 0.0\nsamples = 1\nvalue = -0.3934"] ;
175 -> 176 ;
177 [label="mse = 0.0\nsamples = 1\nvalue = -0.3946"] ;
175 -> 177 ;
178 [label="X[35] <= -0.6074\nmse = 0.0\nsamples = 4\nvalue = -0.4036"] ;
174 -> 178 ;
179 [label="X[3] <= -0.1093\nmse = 0.0\nsamples = 2\nvalue = -0.3998"] ;
178 -> 179 ;
180 [label="mse = 0.0\nsamples = 1\nvalue = -0.4041"] ;
179 -> 180 ;
181 [label="mse = 0.0\nsamples = 1\nvalue = -0.3955"] ;
179 -> 181 ;
182 [label="X[16] <= -0.3147\nmse = 0.0\nsamples = 2\nvalue = -0.4073"] ;
178 -> 182 ;
183 [label="mse = 0.0\nsamples = 1\nvalue = -0.4119"] ;
182 -> 183 ;
184 [label="mse = 0.0\nsamples = 1\nvalue = -0.4028"] ;
182 -> 184 ;
185 [label="X[32] <= 0.914\nmse = 0.0001\nsamples = 5\nvalue = -0.417"] ;
165 -> 185 ;
186 [label="mse = 0.0\nsamples = 1\nvalue = -0.4317"] ;
185 -> 186 ;
187 [label="X[34] <= 0.4025\nmse = 0.0001\nsamples = 4\nvalue = -0.4133"] ;
185 -> 187 ;
188 [label="X[0] <= 0.1248\nmse = 0.0\nsamples = 2\nvalue = -0.4071"] ;
187 -> 188 ;
189 [label="mse = 0.0\nsamples = 1\nvalue = -0.4066"] ;
188 -> 189 ;
190 [label="mse = -0.0\nsamples = 1\nvalue = -0.4076"] ;
188 -> 190 ;
191 [label="X[7] <= -0.011\nmse = 0.0001\nsamples = 2\nvalue = -0.4195"] ;
187 -> 191 ;
192 [label="mse = 0.0\nsamples = 1\nvalue = -0.4109"] ;
191 -> 192 ;
193 [label="mse = 0.0\nsamples = 1\nvalue = -0.4281"] ;
191 -> 193 ;
194 [label="X[36] <= 0.6761\nmse = 0.0005\nsamples = 12\nvalue = -0.395"] ;
164 -> 194 ;
195 [label="X[18] <= -0.2899\nmse = 0.0002\nsamples = 9\nvalue = -0.4028"] ;
194 -> 195 ;
196 [label="X[38] <= -0.2486\nmse = 0.0\nsamples = 3\nvalue = -0.4204"] ;
195 -> 196 ;
197 [label="mse = 0.0\nsamples = 2\nvalue = -0.4199"] ;
196 -> 197 ;
198 [label="mse = -0.0\nsamples = 1\nvalue = -0.4215"] ;
196 -> 198 ;
199 [label="X[35] <= 0.6163\nmse = 0.0\nsamples = 6\nvalue = -0.394"] ;
195 -> 199 ;
200 [label="X[29] <= -0.3747\nmse = 0.0\nsamples = 4\nvalue = -0.3921"] ;
199 -> 200 ;
201 [label="X[36] <= -0.7109\nmse = 0.0\nsamples = 2\nvalue = -0.3925"] ;
200 -> 201 ;
202 [label="mse = 0.0\nsamples = 1\nvalue = -0.3947"] ;
201 -> 202 ;
203 [label="mse = 0.0\nsamples = 1\nvalue = -0.3903"] ;
201 -> 203 ;
204 [label="X[37] <= 0.6074\nmse = 0.0\nsamples = 2\nvalue = -0.3917"] ;
200 -> 204 ;
205 [label="mse = 0.0\nsamples = 1\nvalue = -0.3934"] ;
204 -> 205 ;
206 [label="mse = 0.0\nsamples = 1\nvalue = -0.39"] ;
204 -> 206 ;
207 [label="X[28] <= -0.4355\nmse = 0.0\nsamples = 2\nvalue = -0.3977"] ;
199 -> 207 ;
208 [label="mse = 0.0\nsamples = 1\nvalue = -0.3995"] ;
207 -> 208 ;
209 [label="mse = -0.0\nsamples = 1\nvalue = -0.396"] ;
207 -> 209 ;
210 [label="X[23] <= 0.279\nmse = 0.0007\nsamples = 3\nvalue = -0.3716"] ;
194 -> 210 ;
211 [label="mse = 0.0\nsamples = 1\nvalue = -0.4003"] ;
210 -> 211 ;
212 [label="X[35] <= 0.6163\nmse = 0.0004\nsamples = 2\nvalue = -0.3572"] ;
210 -> 212 ;
213 [label="mse = 0.0\nsamples = 1\nvalue = -0.3776"] ;
212 -> 213 ;
214 [label="mse = 0.0\nsamples = 1\nvalue = -0.3369"] ;
212 -> 214 ;
215 [label="X[38] <= -0.7109\nmse = 0.0011\nsamples = 9\nvalue = -0.3767"] ;
163 -> 215 ;
216 [label="X[38] <= -1.1733\nmse = 0.0009\nsamples = 4\nvalue = -0.3506"] ;
215 -> 216 ;
217 [label="X[3] <= -0.2977\nmse = 0.0\nsamples = 2\nvalue = -0.3767"] ;
216 -> 217 ;
218 [label="mse = 0.0\nsamples = 1\nvalue = -0.3774"] ;
217 -> 218 ;
219 [label="mse = -0.0\nsamples = 1\nvalue = -0.3759"] ;
217 -> 219 ;
220 [label="X[1] <= -0.2157\nmse = 0.0004\nsamples = 2\nvalue = -0.3246"] ;
216 -> 220 ;
221 [label="mse = 0.0\nsamples = 1\nvalue = -0.3452"] ;
220 -> 221 ;
222 [label="mse = 0.0\nsamples = 1\nvalue = -0.3041"] ;
220 -> 222 ;
223 [label="X[38] <= 0.0596\nmse = 0.0003\nsamples = 5\nvalue = -0.3975"] ;
215 -> 223 ;
224 [label="mse = 0.0\nsamples = 1\nvalue = -0.4204"] ;
223 -> 224 ;
225 [label="X[37] <= -0.6163\nmse = 0.0002\nsamples = 4\nvalue = -0.3918"] ;
223 -> 225 ;
226 [label="mse = 0.0\nsamples = 1\nvalue = -0.4025"] ;
225 -> 226 ;
227 [label="X[5] <= -0.1321\nmse = 0.0003\nsamples = 3\nvalue = -0.3883"] ;
225 -> 227 ;
228 [label="X[34] <= -0.823\nmse = 0.0002\nsamples = 2\nvalue = -0.3962"] ;
227 -> 228 ;
229 [label="mse = 0.0\nsamples = 1\nvalue = -0.3822"] ;
228 -> 229 ;
230 [label="mse = 0.0\nsamples = 1\nvalue = -0.4102"] ;
228 -> 230 ;
231 [label="mse = -0.0\nsamples = 1\nvalue = -0.3724"] ;
227 -> 231 ;
232 [label="X[0] <= -0.5129\nmse = 0.0053\nsamples = 25\nvalue = -0.3118"] ;
2 -> 232 ;
233 [label="X[27] <= -0.7815\nmse = 0.0003\nsamples = 19\nvalue = -0.3476"] ;
232 -> 233 ;
234 [label="X[36] <= 1.1384\nmse = 0.0001\nsamples = 11\nvalue = -0.3542"] ;
233 -> 234 ;
235 [label="X[38] <= -0.7109\nmse = 0.0\nsamples = 9\nvalue = -0.3573"] ;
234 -> 235 ;
236 [label="X[36] <= -1.1733\nmse = 0.0\nsamples = 3\nvalue = -0.3522"] ;
235 -> 236 ;
237 [label="mse = 0.0\nsamples = 1\nvalue = -0.361"] ;
236 -> 237 ;
238 [label="X[17] <= -0.8487\nmse = 0.0\nsamples = 2\nvalue = -0.3477"] ;
236 -> 238 ;
239 [label="mse = 0.0\nsamples = 1\nvalue = -0.3497"] ;
238 -> 239 ;
240 [label="mse = 0.0\nsamples = 1\nvalue = -0.3457"] ;
238 -> 240 ;
241 [label="X[37] <= 0.6074\nmse = 0.0\nsamples = 6\nvalue = -0.3599"] ;
235 -> 241 ;
242 [label="X[10] <= 0.0854\nmse = 0.0\nsamples = 4\nvalue = -0.3588"] ;
241 -> 242 ;
243 [label="X[34] <= -0.1227\nmse = 0.0\nsamples = 2\nvalue = -0.3551"] ;
242 -> 243 ;
244 [label="mse = 0.0\nsamples = 1\nvalue = -0.3558"] ;
243 -> 244 ;
245 [label="mse = 0.0\nsamples = 1\nvalue = -0.3544"] ;
243 -> 245 ;
246 [label="X[34] <= -0.1227\nmse = 0.0\nsamples = 2\nvalue = -0.3624"] ;
242 -> 246 ;
247 [label="mse = 0.0\nsamples = 1\nvalue = -0.3598"] ;
246 -> 247 ;
248 [label="mse = -0.0\nsamples = 1\nvalue = -0.3649"] ;
246 -> 248 ;
249 [label="X[3] <= -0.4188\nmse = 0.0\nsamples = 2\nvalue = -0.3621"] ;
241 -> 249 ;
250 [label="mse = 0.0\nsamples = 1\nvalue = -0.3579"] ;
249 -> 250 ;
251 [label="mse = 0.0\nsamples = 1\nvalue = -0.3663"] ;
249 -> 251 ;
252 [label="X[28] <= -0.3425\nmse = 0.0002\nsamples = 2\nvalue = -0.3402"] ;
234 -> 252 ;
253 [label="mse = 0.0\nsamples = 1\nvalue = -0.353"] ;
252 -> 253 ;
254 [label="mse = -0.0\nsamples = 1\nvalue = -0.3274"] ;
252 -> 254 ;
255 [label="X[36] <= 0.6761\nmse = 0.0003\nsamples = 8\nvalue = -0.3386"] ;
233 -> 255 ;
256 [label="X[37] <= -0.6163\nmse = 0.0001\nsamples = 6\nvalue = -0.3464"] ;
255 -> 256 ;
257 [label="mse = 0.0\nsamples = 1\nvalue = -0.3597"] ;
256 -> 257 ;
258 [label="X[35] <= -0.6074\nmse = 0.0001\nsamples = 5\nvalue = -0.3437"] ;
256 -> 258 ;
259 [label="X[13] <= 0.0933\nmse = 0.0001\nsamples = 3\nvalue = -0.3477"] ;
258 -> 259 ;
260 [label="X[38] <= -0.2486\nmse = 0.0\nsamples = 2\nvalue = -0.3533"] ;
259 -> 260 ;
261 [label="mse = 0.0\nsamples = 1\nvalue = -0.3569"] ;
260 -> 261 ;
262 [label="mse = -0.0\nsamples = 1\nvalue = -0.3497"] ;
260 -> 262 ;
263 [label="mse = 0.0\nsamples = 1\nvalue = -0.3364"] ;
259 -> 263 ;
264 [label="X[3] <= -0.4199\nmse = 0.0001\nsamples = 2\nvalue = -0.3377"] ;
258 -> 264 ;
265 [label="mse = 0.0\nsamples = 1\nvalue = -0.3295"] ;
264 -> 265 ;
266 [label="mse = 0.0\nsamples = 1\nvalue = -0.3459"] ;
264 -> 266 ;
267 [label="X[19] <= -0.1004\nmse = 0.0003\nsamples = 2\nvalue = -0.3151"] ;
255 -> 267 ;
268 [label="mse = 0.0\nsamples = 1\nvalue = -0.3314"] ;
267 -> 268 ;
269 [label="mse = -0.0\nsamples = 1\nvalue = -0.2989"] ;
267 -> 269 ;
270 [label="X[36] <= 0.6761\nmse = 0.0045\nsamples = 6\nvalue = -0.1983"] ;
232 -> 270 ;
271 [label="X[34] <= -0.2978\nmse = 0.0003\nsamples = 4\nvalue = -0.2276"] ;
270 -> 271 ;
272 [label="mse = 0.0\nsamples = 1\nvalue = -0.254"] ;
271 -> 272 ;
273 [label="X[35] <= 0.6163\nmse = 0.0001\nsamples = 3\nvalue = -0.2188"] ;
271 -> 273 ;
274 [label="X[37] <= 0.6074\nmse = 0.0\nsamples = 2\nvalue = -0.2135"] ;
273 -> 274 ;
275 [label="mse = 0.0\nsamples = 1\nvalue = -0.2112"] ;
274 -> 275 ;
276 [label="mse = -0.0\nsamples = 1\nvalue = -0.2158"] ;
274 -> 276 ;
277 [label="mse = -0.0\nsamples = 1\nvalue = -0.2294"] ;
273 -> 277 ;
278 [label="X[36] <= 1.1384\nmse = 0.0077\nsamples = 2\nvalue = -0.1397"] ;
270 -> 278 ;
279 [label="mse = 0.0\nsamples = 1\nvalue = -0.0518"] ;
278 -> 279 ;
280 [label="mse = -0.0\nsamples = 1\nvalue = -0.2275"] ;
278 -> 280 ;
281 [label="X[38] <= 1.1384\nmse = 0.0193\nsamples = 6\nvalue = 0.1828"] ;
1 -> 281 ;
282 [label="X[38] <= 0.0596\nmse = 0.0041\nsamples = 5\nvalue = 0.1264"] ;
281 -> 282 ;
283 [label="X[36] <= -1.1733\nmse = 0.0032\nsamples = 3\nvalue = 0.1642"] ;
282 -> 283 ;
284 [label="mse = 0.0\nsamples = 1\nvalue = 0.0907"] ;
283 -> 284 ;
285 [label="X[35] <= -0.6074\nmse = 0.0007\nsamples = 2\nvalue = 0.201"] ;
283 -> 285 ;
286 [label="mse = 0.0\nsamples = 1\nvalue = 0.1741"] ;
285 -> 286 ;
287 [label="mse = 0.0\nsamples = 1\nvalue = 0.228"] ;
285 -> 287 ;
288 [label="X[38] <= 0.6761\nmse = 0.0\nsamples = 2\nvalue = 0.0696"] ;
282 -> 288 ;
289 [label="mse = 0.0\nsamples = 1\nvalue = 0.0678"] ;
288 -> 289 ;
290 [label="mse = -0.0\nsamples = 1\nvalue = 0.0715"] ;
288 -> 290 ;
291 [label="mse = -0.0\nsamples = 1\nvalue = 0.4646"] ;
281 -> 291 ;
292 [label="X[16] <= 1.1414\nmse = 0.5308\nsamples = 48\nvalue = 1.2951"] ;
0 -> 292 [labeldistance=2.5, labelangle=-45, headlabel="False"] ;
293 [label="X[17] <= -0.7897\nmse = 0.2514\nsamples = 30\nvalue = 0.9305"] ;
292 -> 293 ;
294 [label="X[34] <= -0.823\nmse = 0.015\nsamples = 6\nvalue = 1.7252"] ;
293 -> 294 ;
295 [label="X[38] <= 0.9843\nmse = 0.0017\nsamples = 2\nvalue = 1.8542"] ;
294 -> 295 ;
296 [label="mse = 0.0\nsamples = 1\nvalue = 1.8124"] ;
295 -> 296 ;
297 [label="mse = 0.0\nsamples = 1\nvalue = 1.896"] ;
295 -> 297 ;
298 [label="X[37] <= 0.6074\nmse = 0.0091\nsamples = 4\nvalue = 1.6607"] ;
294 -> 298 ;
299 [label="X[34] <= -0.1227\nmse = 0.004\nsamples = 3\nvalue = 1.6154"] ;
298 -> 299 ;
300 [label="mse = 0.0\nsamples = 1\nvalue = 1.7043"] ;
299 -> 300 ;
301 [label="X[35] <= 0.6163\nmse = 0.0\nsamples = 2\nvalue = 1.5709"] ;
299 -> 301 ;
302 [label="mse = 0.0\nsamples = 1\nvalue = 1.568"] ;
301 -> 302 ;
303 [label="mse = -0.0\nsamples = 1\nvalue = 1.5738"] ;
301 -> 303 ;
304 [label="mse = -0.0\nsamples = 1\nvalue = 1.7968"] ;
298 -> 304 ;
305 [label="X[8] <= 0.085\nmse = 0.1132\nsamples = 24\nvalue = 0.7318"] ;
293 -> 305 ;
306 [label="X[34] <= 1.1028\nmse = 0.0322\nsamples = 14\nvalue = 0.9718"] ;
305 -> 306 ;
307 [label="X[37] <= 0.6074\nmse = 0.0246\nsamples = 11\nvalue = 1.0142"] ;
306 -> 307 ;
308 [label="X[29] <= 0.5103\nmse = 0.0254\nsamples = 7\nvalue = 1.0586"] ;
307 -> 308 ;
309 [label="X[36] <= 1.1384\nmse = 0.035\nsamples = 4\nvalue = 1.0915"] ;
308 -> 309 ;
310 [label="X[17] <= 0.8656\nmse = 0.0261\nsamples = 2\nvalue = 1.0158"] ;
309 -> 310 ;
311 [label="mse = 0.0\nsamples = 1\nvalue = 1.1775"] ;
310 -> 311 ;
312 [label="mse = -0.0\nsamples = 1\nvalue = 0.8541"] ;
310 -> 312 ;
313 [label="X[16] <= 0.5998\nmse = 0.0324\nsamples = 2\nvalue = 1.1672"] ;
309 -> 313 ;
314 [label="mse = 0.0\nsamples = 1\nvalue = 0.9872"] ;
313 -> 314 ;
315 [label="mse = -0.0\nsamples = 1\nvalue = 1.3471"] ;
313 -> 315 ;
316 [label="X[34] <= -0.823\nmse = 0.0091\nsamples = 3\nvalue = 1.0147"] ;
308 -> 316 ;
317 [label="mse = 0.0\nsamples = 1\nvalue = 0.894"] ;
316 -> 317 ;
318 [label="X[38] <= 0.2137\nmse = 0.0028\nsamples = 2\nvalue = 1.075"] ;
316 -> 318 ;
319 [label="mse = 0.0\nsamples = 1\nvalue = 1.1276"] ;
318 -> 319 ;
320 [label="mse = -0.0\nsamples = 1\nvalue = 1.0224"] ;
318 -> 320 ;
321 [label="X[17] <= 0.8656\nmse = 0.0139\nsamples = 4\nvalue = 0.9367"] ;
307 -> 321 ;
322 [label="X[34] <= -0.2978\nmse = 0.0046\nsamples = 2\nvalue = 1.0216"] ;
321 -> 322 ;
323 [label="mse = 0.0\nsamples = 1\nvalue = 0.9537"] ;
322 -> 323 ;
324 [label="mse = 0.0\nsamples = 1\nvalue = 1.0895"] ;
322 -> 324 ;
325 [label="X[38] <= -0.2486\nmse = 0.0088\nsamples = 2\nvalue = 0.8518"] ;
321 -> 325 ;
326 [label="mse = 0.0\nsamples = 1\nvalue = 0.9454"] ;
325 -> 326 ;
327 [label="mse = -0.0\nsamples = 1\nvalue = 0.7582"] ;
325 -> 327 ;
328 [label="X[16] <= 0.5998\nmse = 0.0293\nsamples = 3\nvalue = 0.8162"] ;
306 -> 328 ;
329 [label="X[9] <= -0.0989\nmse = 0.0103\nsamples = 2\nvalue = 0.7104"] ;
328 -> 329 ;
330 [label="mse = 0.0\nsamples = 1\nvalue = 0.6088"] ;
329 -> 330 ;
331 [label="mse = 0.0\nsamples = 1\nvalue = 0.812"] ;
329 -> 331 ;
332 [label="mse = 0.0\nsamples = 1\nvalue = 1.0278"] ;
328 -> 332 ;
333 [label="X[24] <= 0.1982\nmse = 0.0329\nsamples = 10\nvalue = 0.3958"] ;
305 -> 333 ;
334 [label="X[34] <= -0.823\nmse = 0.0034\nsamples = 4\nvalue = 0.2297"] ;
333 -> 334 ;
335 [label="X[36] <= 0.9843\nmse = 0.0009\nsamples = 2\nvalue = 0.2767"] ;
334 -> 335 ;
336 [label="mse = 0.0\nsamples = 1\nvalue = 0.2474"] ;
335 -> 336 ;
337 [label="mse = -0.0\nsamples = 1\nvalue = 0.306"] ;
335 -> 337 ;
338 [label="X[35] <= -0.6074\nmse = 0.0014\nsamples = 2\nvalue = 0.1826"] ;
334 -> 338 ;
339 [label="mse = 0.0\nsamples = 1\nvalue = 0.2206"] ;
338 -> 339 ;
340 [label="mse = -0.0\nsamples = 1\nvalue = 0.1446"] ;
338 -> 340 ;
341 [label="X[35] <= 0.6163\nmse = 0.0219\nsamples = 6\nvalue = 0.5065"] ;
333 -> 341 ;
342 [label="X[34] <= -0.823\nmse = 0.0105\nsamples = 4\nvalue = 0.5924"] ;
341 -> 342 ;
343 [label="mse = 0.0\nsamples = 1\nvalue = 0.7639"] ;
342 -> 343 ;
344 [label="X[38] <= -0.7109\nmse = 0.0009\nsamples = 3\nvalue = 0.5352"] ;
342 -> 344 ;
345 [label="mse = 0.0\nsamples = 1\nvalue = 0.4933"] ;
344 -> 345 ;
346 [label="X[38] <= 0.2137\nmse = 0.0001\nsamples = 2\nvalue = 0.5561"] ;
344 -> 346 ;
347 [label="mse = 0.0\nsamples = 1\nvalue = 0.5484"] ;
346 -> 347 ;
348 [label="mse = 0.0\nsamples = 1\nvalue = 0.5638"] ;
346 -> 348 ;
349 [label="X[34] <= 0.4025\nmse = 0.0005\nsamples = 2\nvalue = 0.3347"] ;
341 -> 349 ;
350 [label="mse = 0.0\nsamples = 1\nvalue = 0.3578"] ;
349 -> 350 ;
351 [label="mse = 0.0\nsamples = 1\nvalue = 0.3117"] ;
349 -> 351 ;
352 [label="X[9] <= 4.0592\nmse = 0.4056\nsamples = 18\nvalue = 1.9028"] ;
292 -> 352 ;
353 [label="X[33] <= 2.1457\nmse = 0.0307\nsamples = 16\nvalue = 1.7056"] ;
352 -> 353 ;
354 [label="X[38] <= -0.7109\nmse = 0.0254\nsamples = 10\nvalue = 1.7945"] ;
353 -> 354 ;
355 [label="X[10] <= 3.2424\nmse = 0.0329\nsamples = 4\nvalue = 1.6878"] ;
354 -> 355 ;
356 [label="X[36] <= -1.1733\nmse = 0.0228\nsamples = 2\nvalue = 1.5635"] ;
355 -> 356 ;
357 [label="mse = 0.0\nsamples = 1\nvalue = 1.7146"] ;
356 -> 357 ;
358 [label="mse = 0.0\nsamples = 1\nvalue = 1.4124"] ;
356 -> 358 ;
359 [label="X[35] <= 0.0045\nmse = 0.012\nsamples = 2\nvalue = 1.8122"] ;
355 -> 359 ;
360 [label="mse = 0.0\nsamples = 1\nvalue = 1.9217"] ;
359 -> 360 ;
361 [label="mse = -0.0\nsamples = 1\nvalue = 1.7026"] ;
359 -> 361 ;
362 [label="X[38] <= 0.0596\nmse = 0.0078\nsamples = 6\nvalue = 1.8655"] ;
354 -> 362 ;
363 [label="X[22] <= 2.0773\nmse = 0.0063\nsamples = 2\nvalue = 1.9638"] ;
362 -> 363 ;
364 [label="mse = 0.0\nsamples = 1\nvalue = 1.8844"] ;
363 -> 364 ;
365 [label="mse = 0.0\nsamples = 1\nvalue = 2.0433"] ;
363 -> 365 ;
366 [label="X[37] <= 0.6074\nmse = 0.0013\nsamples = 4\nvalue = 1.8164"] ;
362 -> 366 ;
367 [label="X[37] <= -0.6163\nmse = 0.0001\nsamples = 2\nvalue = 1.8405"] ;
366 -> 367 ;
368 [label="mse = 0.0\nsamples = 1\nvalue = 1.8296"] ;
367 -> 368 ;
369 [label="mse = 0.0\nsamples = 1\nvalue = 1.8513"] ;
367 -> 369 ;
370 [label="X[8] <= 0.0124\nmse = 0.0013\nsamples = 2\nvalue = 1.7923"] ;
366 -> 370 ;
371 [label="mse = 0.0\nsamples = 1\nvalue = 1.7563"] ;
370 -> 371 ;
372 [label="mse = 0.0\nsamples = 1\nvalue = 1.8283"] ;
370 -> 372 ;
373 [label="X[34] <= 1.1028\nmse = 0.0045\nsamples = 6\nvalue = 1.5575"] ;
353 -> 373 ;
374 [label="X[37] <= -0.6163\nmse = 0.002\nsamples = 5\nvalue = 1.5814"] ;
373 -> 374 ;
375 [label="mse = 0.0\nsamples = 1\nvalue = 1.6611"] ;
374 -> 375 ;
376 [label="X[34] <= -0.823\nmse = 0.0006\nsamples = 4\nvalue = 1.5614"] ;
374 -> 376 ;
377 [label="mse = 0.0\nsamples = 1\nvalue = 1.5261"] ;
376 -> 377 ;
378 [label="X[36] <= -0.7109\nmse = 0.0002\nsamples = 3\nvalue = 1.5732"] ;
376 -> 378 ;
379 [label="mse = 0.0\nsamples = 1\nvalue = 1.5923"] ;
378 -> 379 ;
380 [label="X[34] <= -0.1227\nmse = 0.0\nsamples = 2\nvalue = 1.5636"] ;
378 -> 380 ;
381 [label="mse = 0.0\nsamples = 1\nvalue = 1.5575"] ;
380 -> 381 ;
382 [label="mse = -0.0\nsamples = 1\nvalue = 1.5698"] ;
380 -> 382 ;
383 [label="mse = 0.0\nsamples = 1\nvalue = 1.4383"] ;
373 -> 383 ;
384 [label="X[38] <= -0.865\nmse = 0.6056\nsamples = 2\nvalue = 3.48"] ;
352 -> 384 ;
385 [label="mse = 0.0\nsamples = 1\nvalue = 2.7018"] ;
384 -> 385 ;
386 [label="mse = 0.0\nsamples = 1\nvalue = 4.2582"] ;
384 -> 386 ;
}